<?xml version="1.0"?>
<opencv_storage>
<stage9>
  <maxWeakCount>10</maxWeakCount>
  <stageThreshold>-1.1322753429412842e+00</stageThreshold>
  <weakClassifiers>
    <_>
      <internalNodes>
        0 -1 144207 -1.2495874427258968e-02</internalNodes>
      <leafValues>
        4.6268656849861145e-01 -4.9794238805770874e-01</leafValues></_>
    <_>
      <internalNodes>
        0 -1 128810 3.4153491258621216e-02</internalNodes>
      <leafValues>
        -3.5418552160263062e-01 4.0721702575683594e-01</leafValues></_>
    <_>
      <internalNodes>
        0 -1 124757 2.7470439672470093e-03</internalNodes>
      <leafValues>
        -3.0323952436447144e-01 4.4365942478179932e-01</leafValues></_>
    <_>
      <internalNodes>
        0 -1 22196 -4.6945279464125633e-03</internalNodes>
      <leafValues>
        5.2113813161849976e-01 -2.9850855469703674e-01</leafValues></_>
    <_>
      <internalNodes>
        0 -1 161184 7.1048751124180853e-05</internalNodes>
      <leafValues>
        3.2426837086677551e-01 -4.7320654988288879e-01</leafValues></_>
    <_>
      <internalNodes>
        0 -1 125763 2.7968094218522310e-04</internalNodes>
      <leafValues>
        -3.1480187177658081e-01 4.6625199913978577e-01</leafValues></_>
    <_>
      <internalNodes>
        0 -1 119299 1.2717983918264508e-04</internalNodes>
      <leafValues>
        -4.6473193168640137e-01 3.1522709131240845e-01</leafValues></_>
    <_>
      <internalNodes>
        0 -1 154453 1.4974799007177353e-02</internalNodes>
      <leafValues>
        -1.7899747192859650e-01 7.5285053253173828e-01</leafValues></_>
    <_>
      <internalNodes>
        0 -1 124848 1.0073202429339290e-03</internalNodes>
      <leafValues>
        -3.6736145615577698e-01 4.2667335271835327e-01</leafValues></_>
    <_>
      <internalNodes>
        0 -1 106974 -4.7525921836495399e-03</internalNodes>
      <leafValues>
        5.0357836484909058e-01 -3.4746587276458740e-01</leafValues></_></weakClassifiers></stage9>
</opencv_storage>
