<?xml version="1.0"?>
<opencv_storage>
<stage10>
  <maxWeakCount>7</maxWeakCount>
  <stageThreshold>-7.4567049741744995e-01</stageThreshold>
  <weakClassifiers>
    <_>
      <internalNodes>
        0 -1 1274 -3.9671476930379868e-02</internalNodes>
      <leafValues>
        4.2028984427452087e-01 -4.9377593398094177e-01</leafValues></_>
    <_>
      <internalNodes>
        0 -1 133933 -9.5244660973548889e-02</internalNodes>
      <leafValues>
        -7.7923774719238281e-01 1.9252532720565796e-01</leafValues></_>
    <_>
      <internalNodes>
        0 -1 161184 -1.5982551849447191e-04</internalNodes>
      <leafValues>
        -7.6000869274139404e-01 1.6183876991271973e-01</leafValues></_>
    <_>
      <internalNodes>
        0 -1 147380 1.5521383611485362e-03</internalNodes>
      <leafValues>
        -3.6223033070564270e-01 3.7199696898460388e-01</leafValues></_>
    <_>
      <internalNodes>
        0 -1 162114 3.2434761524200439e-03</internalNodes>
      <leafValues>
        2.5308302044868469e-01 -6.0493594408035278e-01</leafValues></_>
    <_>
      <internalNodes>
        0 -1 116997 -6.0681800823658705e-04</internalNodes>
      <leafValues>
        -9.5843333005905151e-01 1.1033103615045547e-01</leafValues></_>
    <_>
      <internalNodes>
        0 -1 121285 -2.4739615037105978e-04</internalNodes>
      <leafValues>
        3.5370713472366333e-01 -3.6990660429000854e-01</leafValues></_></weakClassifiers></stage10>
</opencv_storage>
