<?xml version="1.0"?>
<opencv_storage>
<stage4>
  <maxWeakCount>10</maxWeakCount>
  <stageThreshold>-1.1470510959625244e+00</stageThreshold>
  <weakClassifiers>
    <_>
      <internalNodes>
        0 -1 238 -6.9929540157318115e-02</internalNodes>
      <leafValues>
        5.1111114025115967e-01 -6.1818182468414307e-01</leafValues></_>
    <_>
      <internalNodes>
        0 -1 40332 -1.3076946139335632e-01</internalNodes>
      <leafValues>
        -5.3609389066696167e-01 5.2442091703414917e-01</leafValues></_>
    <_>
      <internalNodes>
        0 -1 68221 -7.7499942854046822e-03</internalNodes>
      <leafValues>
        4.5102399587631226e-01 -4.5214560627937317e-01</leafValues></_>
    <_>
      <internalNodes>
        0 -1 15205 -1.2647966854274273e-02</internalNodes>
      <leafValues>
        5.3848361968994141e-01 -3.5259962081909180e-01</leafValues></_>
    <_>
      <internalNodes>
        0 -1 114433 3.0387956649065018e-03</internalNodes>
      <leafValues>
        -4.8320496082305908e-01 4.2394611239433289e-01</leafValues></_>
    <_>
      <internalNodes>
        0 -1 95560 -6.2835462391376495e-02</internalNodes>
      <leafValues>
        -5.7214480638504028e-01 3.8554927706718445e-01</leafValues></_>
    <_>
      <internalNodes>
        0 -1 126946 -6.8339053541421890e-03</internalNodes>
      <leafValues>
        4.3386167287826538e-01 -4.0949475765228271e-01</leafValues></_>
    <_>
      <internalNodes>
        0 -1 5 1.0538429341977462e-04</internalNodes>
      <leafValues>
        2.5641885399818420e-01 -7.2809088230133057e-01</leafValues></_>
    <_>
      <internalNodes>
        0 -1 153036 3.2899538055062294e-03</internalNodes>
      <leafValues>
        -3.6374410986900330e-01 5.2574855089187622e-01</leafValues></_>
    <_>
      <internalNodes>
        0 -1 80704 3.1691058538854122e-03</internalNodes>
      <leafValues>
        -4.1218465566635132e-01 5.7381892204284668e-01</leafValues></_></weakClassifiers></stage4>
</opencv_storage>
