<?xml version="1.0"?>
<opencv_storage>
<stage5>
  <maxWeakCount>7</maxWeakCount>
  <stageThreshold>-7.9427981376647949e-01</stageThreshold>
  <weakClassifiers>
    <_>
      <internalNodes>
        0 -1 1479 -1.0412687435746193e-02</internalNodes>
      <leafValues>
        4.8453608155250549e-01 -6.4319247007369995e-01</leafValues></_>
    <_>
      <internalNodes>
        0 -1 1 2.2080360213294625e-04</internalNodes>
      <leafValues>
        1.9622001051902771e-01 -7.4484640359878540e-01</leafValues></_>
    <_>
      <internalNodes>
        0 -1 93711 -2.9530050233006477e-03</internalNodes>
      <leafValues>
        -9.2822653055191040e-01 1.6366179287433624e-01</leafValues></_>
    <_>
      <internalNodes>
        0 -1 119613 2.5324048474431038e-03</internalNodes>
      <leafValues>
        1.4535719156265259e-01 -9.0488505363464355e-01</leafValues></_>
    <_>
      <internalNodes>
        0 -1 162100 -2.8013548580929637e-04</internalNodes>
      <leafValues>
        -7.4695062637329102e-01 1.8652263283729553e-01</leafValues></_>
    <_>
      <internalNodes>
        0 -1 89840 5.5805630981922150e-03</internalNodes>
      <leafValues>
        -2.5796800851821899e-01 6.8345230817794800e-01</leafValues></_>
    <_>
      <internalNodes>
        0 -1 161693 8.8697313913144171e-05</internalNodes>
      <leafValues>
        3.5618549585342407e-01 -5.2058798074722290e-01</leafValues></_></weakClassifiers></stage5>
</opencv_storage>
